SVM-light Version V6.02
0 # kernel type
3 # kernel parameter -d 
1 # kernel parameter -g 
1 # kernel parameter -s 
1 # kernel parameter -r 
empty# kernel parameter -u 
2 # highest feature index 
110 # number of training documents 
60 # number of support vectors plus 1 
-1.8616103 # threshold b, each following line is a SV (starting with alpha*y)
0.10000000000000000555111512312578 1:0.098124497 2:0.383665 #
0.10000000000000000555111512312578 1:0.341858 2:0.493967 #
-1 1:0.51109397 2:0.53430998 #
0.10000000000000000555111512312578 1:0.433465 2:0.43555599 #
0.10000000000000000555111512312578 1:0.48529899 2:0.37905601 #
0.10000000000000000555111512312578 1:0.38447899 2:0.47672901 #
0.10000000000000000555111512312578 1:0.326906 2:0.491418 #
0.10000000000000000555111512312578 1:0.48221099 2:0.34077999 #
0.10000000000000000555111512312578 1:0.32778701 2:0.46630701 #
0.10000000000000000555111512312578 1:0.46687999 2:0.33299401 #
0.10000000000000000555111512312578 1:0.27889401 2:0.475447 #
0.10000000000000000555111512312578 1:0.392214 2:0.37032399 #
0.10000000000000000555111512312578 1:0.351612 2:0.40807 #
-1 1:0.69362301 2:0.52133 #
0.10000000000000000555111512312578 1:0.39891499 2:0.35135099 #
0.10000000000000000555111512312578 1:0.31124899 2:0.433375 #
0.10000000000000000555111512312578 1:0.336647 2:0.40460199 #
0.10000000000000000555111512312578 1:0.4569 2:0.25281799 #
0.10000000000000000555111512312578 1:0.26543599 2:0.46786499 #
0.10000000000000000555111512312578 1:0.39468199 2:0.29874501 #
0.10000000000000000555111512312578 1:0.298971 2:0.41621199 #
0.10000000000000000555111512312578 1:0.44646099 2:0.195381 #
0.10000000000000000555111512312578 1:0.265605 2:0.460549 #
0.10000000000000000555111512312578 1:0.353358 2:0.31783101 #
-1 1:0.51256698 2:0.85216999 #
0.10000000000000000555111512312578 1:0.32035899 2:0.34204799 #
0.10000000000000000555111512312578 1:0.27588901 2:0.37127301 #
0.10000000000000000555111512312578 1:0.38596699 2:0.21132299 #
0.10000000000000000555111512312578 1:0.21632101 2:0.411787 #
0.10000000000000000555111512312578 1:0.34251401 2:0.265315 #
0.10000000000000000555111512312578 1:0.31588301 2:0.288697 #
0.10000000000000000555111512312578 1:0.118687 2:0.478468 #
0.10000000000000000555111512312578 1:0.29159299 2:0.31033599 #
0.10000000000000000555111512312578 1:0.214782 2:0.374309 #
0.10000000000000000555111512312578 1:0.386361 2:0.19944 #
-0.89062798450415670004076673649251 1:0.99850202 2:0.50490099 #
0.10000000000000000555111512312578 1:0.093730398 2:0.44719499 #
0.10000000000000000555111512312578 1:0.37456599 2:0.201092 #
0.10000000000000000555111512312578 1:0.30492899 2:0.262523 #
0.10000000000000000555111512312578 1:0.348216 2:0.20754699 #
-1 1:0.67753702 2:0.84689403 #
0.10000000000000000555111512312578 1:0.390966 2:0.14509299 #
0.10000000000000000555111512312578 1:0.32097 2:0.214678 #
0.10000000000000000555111512312578 1:0.211555 2:0.32685 #
0.10000000000000000555111512312578 1:0.183218 2:0.34276801 #
0.10000000000000000555111512312578 1:0.145785 2:0.37184399 #
0.10000000000000000555111512312578 1:0.158214 2:0.35760599 #
0.10000000000000000555111512312578 1:0.36136201 2:0.128896 #
0.10000000000000000555111512312578 1:0.106015 2:0.394537 #
0.10000000000000000555111512312578 1:0.15874 2:0.335601 #
0.10000000000000000555111512312578 1:0.092216797 2:0.40727001 #
0.10000000000000000555111512312578 1:0.19413599 2:0.27915999 #
-0.38583646536213311861729380325414 1:0.612086 2:0.92160702 #
0.10000000000000000555111512312578 1:0.13646901 2:0.339867 #
0.10000000000000000555111512312578 1:0.34737599 2:0.106082 #
0.10000000000000000555111512312578 1:0.14703301 2:0.32684499 #
0.10000000000000000555111512312578 1:0.19800299 2:0.27044201 #
0.10000000000000000555111512312578 1:0.367479 2:0.080567002 #
0.076464449866286088308697799220681 1:0.37001601 2:0.077184901 #
