SVM-light Version V6.02
0 # kernel type
3 # kernel parameter -d 
1 # kernel parameter -g 
1 # kernel parameter -s 
1 # kernel parameter -r 
empty# kernel parameter -u 
2 # highest feature index 
200 # number of training documents 
36 # number of support vectors plus 1 
-3.338982 # threshold b, each following line is a SV (starting with alpha*y)
-1 1:0.59205002 2:0.61213899 #
1 1:0.341858 2:0.493967 #
-1 1:0.51109397 2:0.53430998 #
1 1:0.433465 2:0.43555599 #
-1 1:0.51499599 2:0.56877297 #
1 1:0.48529899 2:0.37905601 #
-1 1:0.54374999 2:0.54954797 #
1 1:0.38447899 2:0.47672901 #
-1 1:0.51082498 2:0.58949101 #
1 1:0.326906 2:0.491418 #
-1 1:0.64775401 2:0.51596099 #
1 1:0.48221099 2:0.34077999 #
-1 1:0.61188501 2:0.55394399 #
1 1:0.46687999 2:0.33299401 #
-1 1:0.60886598 2:0.56930101 #
1 1:0.32778701 2:0.46630701 #
-1 1:0.58842802 2:0.58856201 #
1 1:0.392214 2:0.37032399 #
-1 1:0.59030801 2:0.596623 #
1 1:0.351612 2:0.40807 #
-1 1:0.67371899 2:0.52208298 #
1 1:0.39891499 2:0.35135099 #
-1 1:0.54129601 2:0.67439198 #
1 1:0.27889401 2:0.475447 #
-1 1:0.69362301 2:0.52133 #
1 1:0.336647 2:0.40460199 #
-1 1:0.60890102 2:0.66123003 #
1 1:0.4569 2:0.25281799 #
-1 1:0.686782 2:0.59111398 #
1 1:0.31124899 2:0.433375 #
-1 1:0.55347103 2:0.77465397 #
1 1:0.26543599 2:0.46786499 #
-0.63620176860932042828267185541335 1:0.75590998 2:0.52377701 #
0.25158841614946236830974157783203 1:0.265605 2:0.460549 #
0.38461335245985939224055982776918 1:0.39468199 2:0.29874501 #
