SVM-light Version V6.02
0 # kernel type
3 # kernel parameter -d 
1 # kernel parameter -g 
1 # kernel parameter -s 
1 # kernel parameter -r 
empty# kernel parameter -u 
2 # highest feature index 
150 # number of training documents 
32 # number of support vectors plus 1 
-3.2203815 # threshold b, each following line is a SV (starting with alpha*y)
-1 1:0.686782 2:0.59111398 #
1 1:0.341858 2:0.493967 #
-1 1:0.51109397 2:0.53430998 #
1 1:0.433465 2:0.43555599 #
-1 1:0.51499599 2:0.56877297 #
1 1:0.48529899 2:0.37905601 #
-1 1:0.54374999 2:0.54954797 #
1 1:0.38447899 2:0.47672901 #
-1 1:0.51082498 2:0.58949101 #
1 1:0.326906 2:0.491418 #
-1 1:0.61188501 2:0.55394399 #
1 1:0.48221099 2:0.34077999 #
-1 1:0.58842802 2:0.58856201 #
1 1:0.32778701 2:0.46630701 #
-1 1:0.59030801 2:0.596623 #
1 1:0.46687999 2:0.33299401 #
-1 1:0.67371899 2:0.52208298 #
1 1:0.392214 2:0.37032399 #
-1 1:0.59205002 2:0.61213899 #
1 1:0.351612 2:0.40807 #
-1 1:0.69362301 2:0.52133 #
1 1:0.39891499 2:0.35135099 #
-1 1:0.76502597 2:0.52730799 #
0.83029309926432248722960594022879 1:0.4569 2:0.25281799 #
-1 1:0.51256698 2:0.85216999 #
1 1:0.336647 2:0.40460199 #
-1 1:0.62431401 2:0.71586102 #
1 1:0.27889401 2:0.475447 #
-0.28105662613569748486952448729426 1:0.80864 2:0.550767 #
1 1:0.31124899 2:0.433375 #
-0.54923647312862211578021742752753 1:0.63753498 2:0.75064099 #
