SVM-light Version V6.02
0 # kernel type
3 # kernel parameter -d 
1 # kernel parameter -g 
1 # kernel parameter -s 
1 # kernel parameter -r 
empty# kernel parameter -u 
2 # highest feature index 
110 # number of training documents 
24 # number of support vectors plus 1 
-2.5445036 # threshold b, each following line is a SV (starting with alpha*y)
-1 1:0.71055597 2:0.864757 #
0.5 1:0.341858 2:0.493967 #
-1 1:0.51109397 2:0.53430998 #
0.5 1:0.433465 2:0.43555599 #
0.5 1:0.48529899 2:0.37905601 #
-1 1:0.69362301 2:0.52133 #
0.5 1:0.38447899 2:0.47672901 #
0.5 1:0.48221099 2:0.34077999 #
-1 1:0.51256698 2:0.85216999 #
0.5 1:0.46687999 2:0.33299401 #
0.5 1:0.326906 2:0.491418 #
-1 1:0.99850202 2:0.50490099 #
0.5 1:0.32778701 2:0.46630701 #
-1 1:0.67753702 2:0.84689403 #
0.5 1:0.392214 2:0.37032399 #
0.5 1:0.351612 2:0.40807 #
-1 1:0.612086 2:0.92160702 #
0.5 1:0.39891499 2:0.35135099 #
0.5 1:0.27889401 2:0.475447 #
0.5 1:0.31124899 2:0.433375 #
0.5 1:0.336647 2:0.40460199 #
-0.025367798387156303974165894032922 1:0.802495 2:0.88547701 #
0.025367798387168738472041695786174 1:0.26543599 2:0.46786499 #
