SVM-light Version V6.02
0 # kernel type
3 # kernel parameter -d 
1 # kernel parameter -g 
1 # kernel parameter -s 
1 # kernel parameter -r 
empty# kernel parameter -u 
2 # highest feature index 
110 # number of training documents 
90 # number of support vectors plus 1 
-1.3969913 # threshold b, each following line is a SV (starting with alpha*y)
0.050000000000000002775557561562891 1:0.114477 2:0.21216699 #
0.050000000000000002775557561562891 1:0.341858 2:0.493967 #
-1 1:0.51109397 2:0.53430998 #
0.050000000000000002775557561562891 1:0.433465 2:0.43555599 #
0.050000000000000002775557561562891 1:0.48529899 2:0.37905601 #
0.050000000000000002775557561562891 1:0.38447899 2:0.47672901 #
0.050000000000000002775557561562891 1:0.326906 2:0.491418 #
0.050000000000000002775557561562891 1:0.48221099 2:0.34077999 #
0.050000000000000002775557561562891 1:0.32778701 2:0.46630701 #
0.050000000000000002775557561562891 1:0.46687999 2:0.33299401 #
0.050000000000000002775557561562891 1:0.27889401 2:0.475447 #
0.050000000000000002775557561562891 1:0.392214 2:0.37032399 #
0.050000000000000002775557561562891 1:0.351612 2:0.40807 #
0.050000000000000002775557561562891 1:0.39891499 2:0.35135099 #
0.050000000000000002775557561562891 1:0.31124899 2:0.433375 #
0.050000000000000002775557561562891 1:0.336647 2:0.40460199 #
0.050000000000000002775557561562891 1:0.26543599 2:0.46786499 #
0.050000000000000002775557561562891 1:0.4569 2:0.25281799 #
0.050000000000000002775557561562891 1:0.265605 2:0.460549 #
0.050000000000000002775557561562891 1:0.298971 2:0.41621199 #
0.050000000000000002775557561562891 1:0.39468199 2:0.29874501 #
0.050000000000000002775557561562891 1:0.353358 2:0.31783101 #
0.050000000000000002775557561562891 1:0.32035899 2:0.34204799 #
-1 1:0.69362301 2:0.52133 #
0.050000000000000002775557561562891 1:0.44646099 2:0.195381 #
0.050000000000000002775557561562891 1:0.27588901 2:0.37127301 #
0.050000000000000002775557561562891 1:0.21632101 2:0.411787 #
0.050000000000000002775557561562891 1:0.34251401 2:0.265315 #
0.050000000000000002775557561562891 1:0.38596699 2:0.21132299 #
0.050000000000000002775557561562891 1:0.31588301 2:0.288697 #
0.050000000000000002775557561562891 1:0.386361 2:0.19944 #
0.050000000000000002775557561562891 1:0.29159299 2:0.31033599 #
0.050000000000000002775557561562891 1:0.37456599 2:0.201092 #
0.050000000000000002775557561562891 1:0.214782 2:0.374309 #
0.050000000000000002775557561562891 1:0.30492899 2:0.262523 #
0.050000000000000002775557561562891 1:0.348216 2:0.20754699 #
0.050000000000000002775557561562891 1:0.390966 2:0.14509299 #
0.050000000000000002775557561562891 1:0.118687 2:0.478468 #
0.050000000000000002775557561562891 1:0.32097 2:0.214678 #
0.050000000000000002775557561562891 1:0.211555 2:0.32685 #
0.050000000000000002775557561562891 1:0.36136201 2:0.128896 #
0.050000000000000002775557561562891 1:0.183218 2:0.34276801 #
0.050000000000000002775557561562891 1:0.37001601 2:0.077184901 #
0.050000000000000002775557561562891 1:0.093730398 2:0.44719499 #
-1 1:0.51256698 2:0.85216999 #
0.050000000000000002775557561562891 1:0.367479 2:0.080567002 #
0.050000000000000002775557561562891 1:0.158214 2:0.35760599 #
0.050000000000000002775557561562891 1:0.145785 2:0.37184399 #
0.050000000000000002775557561562891 1:0.34737599 2:0.106082 #
0.050000000000000002775557561562891 1:0.15874 2:0.335601 #
0.050000000000000002775557561562891 1:0.106015 2:0.394537 #
0.050000000000000002775557561562891 1:0.092216797 2:0.40727001 #
0.050000000000000002775557561562891 1:0.19413599 2:0.27915999 #
0.050000000000000002775557561562891 1:0.098124497 2:0.383665 #
0.050000000000000002775557561562891 1:0.13646901 2:0.339867 #
0.050000000000000002775557561562891 1:0.14703301 2:0.32684499 #
0.050000000000000002775557561562891 1:0.19800299 2:0.27044201 #
0.050000000000000002775557561562891 1:0.038673401 2:0.42613199 #
0.050000000000000002775557561562891 1:0.0039101499 2:0.46183801 #
0.050000000000000002775557561562891 1:0.36146101 2:0.081756197 #
0.050000000000000002775557561562891 1:0.054409001 2:0.397329 #
0.050000000000000002775557561562891 1:0.216242 2:0.23163 #
0.050000000000000002775557561562891 1:0.056141999 2:0.379664 #
0.050000000000000002775557561562891 1:0.052423101 2:0.38194901 #
0.050000000000000002775557561562891 1:0.27786899 2:0.158714 #
-0.47163472010750062679562688572332 1:0.99850202 2:0.50490099 #
0.050000000000000002775557561562891 1:0.108782 2:0.32102999 #
0.050000000000000002775557561562891 1:0.157906 2:0.27322501 #
0.050000000000000002775557561562891 1:0.37904999 2:0.049259402 #
0.050000000000000002775557561562891 1:0.32774901 2:0.087504901 #
0.050000000000000002775557561562891 1:0.049297001 2:0.37597299 #
-0.68846643476701974151410468039103 1:0.67753702 2:0.84689403 #
0.050000000000000002775557561562891 1:0.13308901 2:0.258279 #
0.050000000000000002775557561562891 1:0.15671401 2:0.221982 #
0.050000000000000002775557561562891 1:0.164407 2:0.201194 #
0.050000000000000002775557561562891 1:0.30176699 2:0.052960198 #
0.050000000000000002775557561562891 1:0.183826 2:0.167656 #
0.050000000000000002775557561562891 1:0.184599 2:0.147074 #
0.050000000000000002775557561562891 1:0.125521 2:0.20952401 #
0.050000000000000002775557561562891 1:0.243802 2:0.076795198 #
0.050000000000000002775557561562891 1:0.202658 2:0.120239 #
0.050000000000000002775557561562891 1:0.24224 2:0.062436402 #
0.050000000000000002775557561562891 1:0.117413 2:0.19067299 #
0.050000000000000002775557561562891 1:0.22587 2:0.0600935 #
0.050000000000000002775557561562891 1:0.102837 2:0.179803 #
0.050000000000000002775557561562891 1:0.063249901 2:0.220018 #
0.050000000000000002775557561562891 1:0.0457494 2:0.22894301 #
0.050000000000000002775557561562891 1:0.043333299 2:0.22629599 #
0.010101154874519124859943985939026 1:0.103014 2:0.14961299 #
